digraph Tree {
node [shape=box, style="filled, rounded", color="black", fontname="helvetica"] ;
edge [fontname="helvetica"] ;
0 [label="max km Z3-4 one day <= 13.85\ngini = 0.5\nsamples = 368\nvalue = [274, 301]\nclass = 1", fillcolor="#edf6fd"] ;
1 [label="avg training success <= 0.47\ngini = 0.5\nsamples = 358\nvalue = [261, 300]\nclass = 1", fillcolor="#e5f2fc"] ;
0 -> 1 [labeldistance=2.5, labelangle=45, headlabel="True"] ;
2 [label="nr. strength trainings <= 1.5\ngini = 0.49\nsamples = 130\nvalue = [115, 87]\nclass = 0", fillcolor="#f9e0cf"] ;
1 -> 2 ;
3 [label="max exertion <= 0.75\ngini = 0.5\nsamples = 113\nvalue = [92, 81]\nclass = 0", fillcolor="#fcf0e7"] ;
2 -> 3 ;
4 [label="avg recovery <= 0.2\ngini = 0.49\nsamples = 109\nvalue = [92, 74]\nclass = 0", fillcolor="#fae6d8"] ;
3 -> 4 ;
5 [label="gini = 0.5\nsamples = 102\nvalue = [84, 73]\nclass = 0", fillcolor="#fceee5"] ;
4 -> 5 ;
6 [label="gini = 0.2\nsamples = 7\nvalue = [8, 1]\nclass = 0", fillcolor="#e89152"] ;
4 -> 6 ;
7 [label="gini = 0.0\nsamples = 4\nvalue = [0, 7]\nclass = 1", fillcolor="#399de5"] ;
3 -> 7 ;
8 [label="max km one day <= 13.35\ngini = 0.33\nsamples = 17\nvalue = [23, 6]\nclass = 0", fillcolor="#eca26d"] ;
2 -> 8 ;
9 [label="gini = 0.0\nsamples = 8\nvalue = [15, 0]\nclass = 0", fillcolor="#e58139"] ;
8 -> 9 ;
10 [label="max km one day <= 22.5\ngini = 0.49\nsamples = 9\nvalue = [8, 6]\nclass = 0", fillcolor="#f8e0ce"] ;
8 -> 10 ;
11 [label="gini = 0.44\nsamples = 6\nvalue = [3, 6]\nclass = 1", fillcolor="#9ccef2"] ;
10 -> 11 ;
12 [label="gini = 0.0\nsamples = 3\nvalue = [5, 0]\nclass = 0", fillcolor="#e58139"] ;
10 -> 12 ;
13 [label="max km one day <= 3.85\ngini = 0.48\nsamples = 228\nvalue = [146, 213]\nclass = 1", fillcolor="#c1e0f7"] ;
1 -> 13 ;
14 [label="nr. sessions <= 7.5\ngini = 0.44\nsamples = 13\nvalue = [17, 8]\nclass = 0", fillcolor="#f1bc96"] ;
13 -> 14 ;
15 [label="max recovery <= 0.5\ngini = 0.39\nsamples = 11\nvalue = [17, 6]\nclass = 0", fillcolor="#eead7f"] ;
14 -> 15 ;
16 [label="gini = 0.0\nsamples = 3\nvalue = [7, 0]\nclass = 0", fillcolor="#e58139"] ;
15 -> 16 ;
17 [label="gini = 0.47\nsamples = 8\nvalue = [10, 6]\nclass = 0", fillcolor="#f5cdb0"] ;
15 -> 17 ;
18 [label="gini = 0.0\nsamples = 2\nvalue = [0, 2]\nclass = 1", fillcolor="#399de5"] ;
14 -> 18 ;
19 [label="total km Z3-4 <= 18.0\ngini = 0.47\nsamples = 215\nvalue = [129, 205]\nclass = 1", fillcolor="#b6dbf5"] ;
13 -> 19 ;
20 [label="min exertion <= 0.48\ngini = 0.47\nsamples = 207\nvalue = [119, 203]\nclass = 1", fillcolor="#add6f4"] ;
19 -> 20 ;
21 [label="gini = 0.45\nsamples = 191\nvalue = [103, 195]\nclass = 1", fillcolor="#a2d1f3"] ;
20 -> 21 ;
22 [label="gini = 0.44\nsamples = 16\nvalue = [16, 8]\nclass = 0", fillcolor="#f2c09c"] ;
20 -> 22 ;
23 [label="min training success <= 0.69\ngini = 0.28\nsamples = 8\nvalue = [10, 2]\nclass = 0", fillcolor="#ea9a61"] ;
19 -> 23 ;
24 [label="gini = 0.0\nsamples = 6\nvalue = [10, 0]\nclass = 0", fillcolor="#e58139"] ;
23 -> 24 ;
25 [label="gini = 0.0\nsamples = 2\nvalue = [0, 2]\nclass = 1", fillcolor="#399de5"] ;
23 -> 25 ;
26 [label="nr. tough sessions (effort in Z5, T1 or T2) <= 1.5\ngini = 0.13\nsamples = 10\nvalue = [13, 1]\nclass = 0", fillcolor="#e78b48"] ;
0 -> 26 [labeldistance=2.5, labelangle=-45, headlabel="False"] ;
27 [label="gini = 0.0\nsamples = 9\nvalue = [13, 0]\nclass = 0", fillcolor="#e58139"] ;
26 -> 27 ;
28 [label="gini = 0.0\nsamples = 1\nvalue = [0, 1]\nclass = 1", fillcolor="#399de5"] ;
26 -> 28 ;
}